digraph Tree {
node [shape=box, style="filled, rounded", color="black", fontname="helvetica"] ;
edge [fontname="helvetica"] ;
0 [label="petal length (cm) <= 4.95\ngini = 0.66\nsamples = 95\nvalue = [40, 61, 49]\nclass = versicolor", fillcolor="#e7fcf0"] ;
1 [label="petal length (cm) <= 2.45\ngini = 0.51\nsamples = 65\nvalue = [40, 61, 3]\nclass = versicolor", fillcolor="#bef6d6"] ;
0 -> 1 [labeldistance=2.5, labelangle=45, headlabel="True"] ;
2 [label="gini = 0.0\nsamples = 31\nvalue = [40, 0, 0]\nclass = setosa", fillcolor="#e58139"] ;
1 -> 2 ;
3 [label="petal length (cm) <= 4.75\ngini = 0.09\nsamples = 34\nvalue = [0, 61, 3]\nclass = versicolor", fillcolor="#43e687"] ;
1 -> 3 ;
4 [label="gini = 0.0\nsamples = 28\nvalue = [0, 58, 0]\nclass = versicolor", fillcolor="#39e581"] ;
3 -> 4 ;
5 [label="sepal width (cm) <= 3.05\ngini = 0.5\nsamples = 6\nvalue = [0, 3, 3]\nclass = versicolor", fillcolor="#ffffff"] ;
3 -> 5 ;
6 [label="petal width (cm) <= 1.65\ngini = 0.38\nsamples = 4\nvalue = [0, 1, 3]\nclass = virginica", fillcolor="#ab7bee"] ;
5 -> 6 ;
7 [label="gini = 0.0\nsamples = 1\nvalue = [0, 1, 0]\nclass = versicolor", fillcolor="#39e581"] ;
6 -> 7 ;
8 [label="gini = 0.0\nsamples = 3\nvalue = [0, 0, 3]\nclass = virginica", fillcolor="#8139e5"] ;
6 -> 8 ;
9 [label="gini = 0.0\nsamples = 2\nvalue = [0, 2, 0]\nclass = versicolor", fillcolor="#39e581"] ;
5 -> 9 ;
10 [label="gini = 0.0\nsamples = 30\nvalue = [0, 0, 46]\nclass = virginica", fillcolor="#8139e5"] ;
0 -> 10 [labeldistance=2.5, labelangle=-45, headlabel="False"] ;
}